{
    "function692150": {
        "filename": "./function692150_explored_schedules.json",
        "node_name": "lanka13",
        "parameters": {
            "beam_size": 2,
            "max_depth": 6
        },
        "program_annotation": {
            "memory_size": 0.5078125,
            "iterators": {
                "i0": {
                    "lower_bound": 0,
                    "upper_bound": 64,
                    "parent_iterator": null,
                    "child_iterators": [
                        "i1"
                    ],
                    "computations_list": []
                },
                "i1": {
                    "lower_bound": 0,
                    "upper_bound": 32,
                    "parent_iterator": "i0",
                    "child_iterators": [
                        "i2"
                    ],
                    "computations_list": []
                },
                "i2": {
                    "lower_bound": 0,
                    "upper_bound": 32,
                    "parent_iterator": "i1",
                    "child_iterators": [],
                    "computations_list": [
                        "comp00"
                    ]
                }
            },
            "computations": {
                "comp00": {
                    "absolute_order": 1,
                    "iterators": [
                        "i0",
                        "i1",
                        "i2"
                    ],
                    "comp_is_reduction": true,
                    "number_of_additions": 0,
                    "number_of_subtraction": 0,
                    "number_of_multiplication": 1,
                    "number_of_division": 0,
                    "write_access_relation": "{ comp00[i0, i1, i2] -> buf00[i1, i2] }",
                    "write_buffer_id": 0,
                    "data_type": "float64",
                    "data_type_size": 0,
                    "accesses": [
                        {
                            "access_is_reduction": true,
                            "buffer_id": 0,
                            "access_matrix": [
                                [
                                    0,
                                    1,
                                    0,
                                    0
                                ],
                                [
                                    0,
                                    0,
                                    1,
                                    0
                                ]
                            ]
                        },
                        {
                            "access_is_reduction": false,
                            "buffer_id": 1,
                            "access_matrix": [
                                [
                                    1,
                                    0,
                                    0,
                                    0
                                ],
                                [
                                    0,
                                    1,
                                    0,
                                    0
                                ],
                                [
                                    0,
                                    0,
                                    1,
                                    0
                                ]
                            ]
                        }
                    ],
                    "expression_representation": {
                        "expr_type": "mul",
                        "children": [
                            {
                                "expr_type": "access",
                                "children": []
                            },
                            {
                                "expr_type": "access",
                                "children": []
                            }
                        ]
                    }
                }
            }
        },
        "initial_execution_time": 0.031073,
        "schedules_list": [
            {
                "comp00": {
                    "tiling": {},
                    "unrolling_factor": null,
                    "parallelized_dim": null,
                    "shiftings": null,
                    "transformations_list": []
                },
                "unfuse_iterators": [],
                "tree_structure": {
                    "roots": [
                        {
                            "loop_name": "i0",
                            "computations_list": [],
                            "child_list": [
                                {
                                    "loop_name": "i1",
                                    "computations_list": [],
                                    "child_list": [
                                        {
                                            "loop_name": "i2",
                                            "computations_list": [
                                                "comp00"
                                            ],
                                            "child_list": []
                                        }
                                    ]
                                }
                            ]
                        }
                    ]
                },
                "execution_times": [
                    0.071549,
                    0.031711,
                    0.031482,
                    0.031343,
                    0.031197,
                    0.031173,
                    0.031233,
                    0.031135,
                    0.031326,
                    0.031093,
                    0.031148,
                    0.031197,
                    0.031073,
                    0.031276,
                    0.031316,
                    0.031373,
                    0.031271,
                    0.031353,
                    0.031246,
                    0.031205,
                    0.031339,
                    0.031328,
                    0.031198,
                    0.031393,
                    0.031198,
                    0.031303,
                    0.031369,
                    0.031277,
                    0.031226,
                    0.031287
                ],
                "legality_check": true,
                "exploration_method": 1,
                "sched_str": "{comp00}:"
            },
            {
                "comp00": {
                    "tiling": {},
                    "unrolling_factor": null,
                    "parallelized_dim": null,
                    "shiftings": null,
                    "transformations_list": [
                        [
                            1,
                            0,
                            1,
                            0,
                            0,
                            0,
                            0,
                            0,
                            0,
                            0,
                            0,
                            0,
                            0,
                            0,
                            0,
                            0
                        ]
                    ]
                },
                "unfuse_iterators": [],
                "tree_structure": {
                    "roots": [
                        {
                            "loop_name": "i0",
                            "computations_list": [],
                            "child_list": [
                                {
                                    "loop_name": "i1",
                                    "computations_list": [],
                                    "child_list": [
                                        {
                                            "loop_name": "i2",
                                            "computations_list": [
                                                "comp00"
                                            ],
                                            "child_list": []
                                        }
                                    ]
                                }
                            ]
                        }
                    ]
                },
                "execution_times": [
                    0.050426,
                    0.025551,
                    0.025398,
                    0.025386,
                    0.025361,
                    0.025418,
                    0.025332,
                    0.025424,
                    0.025369,
                    0.025422,
                    0.025407,
                    0.025432,
                    0.025336,
                    0.025438,
                    0.025371,
                    0.025347,
                    0.025428,
                    0.025474,
                    0.025376,
                    0.025374,
                    0.025435,
                    0.025369,
                    0.0254,
                    0.025332,
                    0.025482,
                    0.025326,
                    0.025301,
                    0.025332,
                    0.025417,
                    0.025404
                ],
                "legality_check": true,
                "exploration_method": 1,
                "sched_str": "{comp00}:I(L0,L1)"
            },
            {
                "comp00": {
                    "tiling": {},
                    "unrolling_factor": null,
                    "parallelized_dim": null,
                    "shiftings": null,
                    "transformations_list": [
                        [
                            1,
                            0,
                            2,
                            0,
                            0,
                            0,
                            0,
                            0,
                            0,
                            0,
                            0,
                            0,
                            0,
                            0,
                            0,
                            0
                        ]
                    ]
                },
                "unfuse_iterators": [],
                "tree_structure": {
                    "roots": [
                        {
                            "loop_name": "i0",
                            "computations_list": [],
                            "child_list": [
                                {
                                    "loop_name": "i1",
                                    "computations_list": [],
                                    "child_list": [
                                        {
                                            "loop_name": "i2",
                                            "computations_list": [
                                                "comp00"
                                            ],
                                            "child_list": []
                                        }
                                    ]
                                }
                            ]
                        }
                    ]
                },
                "execution_times": [
                    0.199724,
                    0.182057,
                    0.182078,
                    0.182253,
                    0.182028,
                    0.190783,
                    0.182043,
                    0.182011,
                    0.181955,
                    0.181996,
                    0.18209,
                    0.181892,
                    0.182154,
                    0.181975,
                    0.181842,
                    0.182015,
                    0.182125,
                    0.182042,
                    0.181944,
                    0.182046,
                    0.181988,
                    0.182013,
                    0.181963,
                    0.182113,
                    0.182158,
                    0.181952,
                    0.189105,
                    0.18214,
                    0.181974,
                    0.182031
                ],
                "legality_check": true,
                "exploration_method": 1,
                "sched_str": "{comp00}:I(L0,L2)"
            },
            {
                "comp00": {
                    "tiling": {},
                    "unrolling_factor": null,
                    "parallelized_dim": null,
                    "shiftings": null,
                    "transformations_list": [
                        [
                            1,
                            1,
                            2,
                            0,
                            0,
                            0,
                            0,
                            0,
                            0,
                            0,
                            0,
                            0,
                            0,
                            0,
                            0,
                            0
                        ]
                    ]
                },
                "unfuse_iterators": [],
                "tree_structure": {
                    "roots": [
                        {
                            "loop_name": "i0",
                            "computations_list": [],
                            "child_list": [
                                {
                                    "loop_name": "i1",
                                    "computations_list": [],
                                    "child_list": [
                                        {
                                            "loop_name": "i2",
                                            "computations_list": [
                                                "comp00"
                                            ],
                                            "child_list": []
                                        }
                                    ]
                                }
                            ]
                        }
                    ]
                },
                "execution_times": [
                    0.0659,
                    0.033171,
                    0.032906,
                    0.032715,
                    0.032503,
                    0.032359,
                    0.032436,
                    0.032483,
                    0.032468,
                    0.032431,
                    0.032337,
                    0.032367,
                    0.032307,
                    0.032353,
                    0.032379,
                    0.03227,
                    0.032386,
                    0.032431,
                    0.032461,
                    0.032337,
                    0.032373,
                    0.032515,
                    0.032376,
                    0.032591,
                    0.032418,
                    0.032403,
                    0.032266,
                    0.032426,
                    0.032469,
                    0.032456
                ],
                "legality_check": true,
                "exploration_method": 1,
                "sched_str": "{comp00}:I(L1,L2)"
            },
            {
                "comp00": {
                    "tiling": {},
                    "unrolling_factor": null,
                    "parallelized_dim": "i2",
                    "shiftings": null,
                    "transformations_list": [
                        [
                            1,
                            1,
                            2,
                            0,
                            0,
                            0,
                            0,
                            0,
                            0,
                            0,
                            0,
                            0,
                            0,
                            0,
                            0,
                            0
                        ]
                    ]
                },
                "unfuse_iterators": [],
                "tree_structure": {
                    "roots": [
                        {
                            "loop_name": "i0",
                            "computations_list": [],
                            "child_list": [
                                {
                                    "loop_name": "i1",
                                    "computations_list": [],
                                    "child_list": [
                                        {
                                            "loop_name": "i2",
                                            "computations_list": [
                                                "comp00"
                                            ],
                                            "child_list": []
                                        }
                                    ]
                                }
                            ]
                        }
                    ]
                },
                "execution_times": [
                    7.31899,
                    5.99537,
                    6.50426,
                    7.95686,
                    7.72736,
                    7.49017,
                    7.36012,
                    7.26779,
                    7.23181,
                    7.21246,
                    7.01445,
                    7.16511,
                    6.99456,
                    7.23459,
                    7.20706,
                    6.98388,
                    7.27503,
                    7.10323,
                    7.11392,
                    7.46991,
                    7.30231,
                    7.20931,
                    7.34508,
                    7.23324,
                    7.14802,
                    7.17209,
                    7.28775,
                    7.33643,
                    7.68347,
                    7.36761
                ],
                "legality_check": true,
                "exploration_method": 1,
                "sched_str": "{comp00}:I(L1,L2)P(L2)"
            },
            {
                "comp00": {
                    "tiling": {},
                    "unrolling_factor": 4,
                    "parallelized_dim": null,
                    "shiftings": null,
                    "transformations_list": [
                        [
                            1,
                            1,
                            2,
                            0,
                            0,
                            0,
                            0,
                            0,
                            0,
                            0,
                            0,
                            0,
                            0,
                            0,
                            0,
                            0
                        ]
                    ]
                },
                "unfuse_iterators": [],
                "tree_structure": {
                    "roots": [
                        {
                            "loop_name": "i0",
                            "computations_list": [],
                            "child_list": [
                                {
                                    "loop_name": "i1",
                                    "computations_list": [],
                                    "child_list": [
                                        {
                                            "loop_name": "i2",
                                            "computations_list": [
                                                "comp00"
                                            ],
                                            "child_list": []
                                        }
                                    ]
                                }
                            ]
                        }
                    ]
                },
                "execution_times": [
                    0.067904,
                    0.028218,
                    0.028077,
                    0.028097,
                    0.027947,
                    0.027851,
                    0.027927,
                    0.027912,
                    0.027812,
                    0.027718,
                    0.027916,
                    0.027653,
                    0.027857,
                    0.027782,
                    0.027898,
                    0.027804,
                    0.027798,
                    0.027845,
                    0.027758,
                    0.027795,
                    0.027838,
                    0.027738,
                    0.027808,
                    0.027854,
                    0.027647,
                    0.027744,
                    0.027751,
                    0.027759,
                    0.027736,
                    0.02776
                ],
                "legality_check": true,
                "exploration_method": 1,
                "sched_str": "{comp00}:I(L1,L2)U(L2,4)"
            },
            {
                "comp00": {
                    "tiling": {},
                    "unrolling_factor": 8,
                    "parallelized_dim": null,
                    "shiftings": null,
                    "transformations_list": [
                        [
                            1,
                            1,
                            2,
                            0,
                            0,
                            0,
                            0,
                            0,
                            0,
                            0,
                            0,
                            0,
                            0,
                            0,
                            0,
                            0
                        ]
                    ]
                },
                "unfuse_iterators": [],
                "tree_structure": {
                    "roots": [
                        {
                            "loop_name": "i0",
                            "computations_list": [],
                            "child_list": [
                                {
                                    "loop_name": "i1",
                                    "computations_list": [],
                                    "child_list": [
                                        {
                                            "loop_name": "i2",
                                            "computations_list": [
                                                "comp00"
                                            ],
                                            "child_list": []
                                        }
                                    ]
                                }
                            ]
                        }
                    ]
                },
                "execution_times": [
                    0.046654,
                    0.026587,
                    0.026332,
                    0.026187,
                    0.026043,
                    0.026127,
                    0.025992,
                    0.025975,
                    0.025938,
                    0.026016,
                    0.025985,
                    0.025991,
                    0.026085,
                    0.025907,
                    0.026036,
                    0.025881,
                    0.025961,
                    0.025951,
                    0.025862,
                    0.025953,
                    0.025984,
                    0.026022,
                    0.026027,
                    0.025973,
                    0.025932,
                    0.025968,
                    0.025958,
                    0.025907,
                    0.02594,
                    0.026016
                ],
                "legality_check": true,
                "exploration_method": 1,
                "sched_str": "{comp00}:I(L1,L2)U(L2,8)"
            },
            {
                "comp00": {
                    "tiling": {},
                    "unrolling_factor": 16,
                    "parallelized_dim": null,
                    "shiftings": null,
                    "transformations_list": [
                        [
                            1,
                            1,
                            2,
                            0,
                            0,
                            0,
                            0,
                            0,
                            0,
                            0,
                            0,
                            0,
                            0,
                            0,
                            0,
                            0
                        ]
                    ]
                },
                "unfuse_iterators": [],
                "tree_structure": {
                    "roots": [
                        {
                            "loop_name": "i0",
                            "computations_list": [],
                            "child_list": [
                                {
                                    "loop_name": "i1",
                                    "computations_list": [],
                                    "child_list": [
                                        {
                                            "loop_name": "i2",
                                            "computations_list": [
                                                "comp00"
                                            ],
                                            "child_list": []
                                        }
                                    ]
                                }
                            ]
                        }
                    ]
                },
                "execution_times": [
                    0.057369,
                    0.033566,
                    0.033566,
                    0.033113,
                    0.033133,
                    0.033047,
                    0.033027,
                    0.032909,
                    0.033226,
                    0.033009,
                    0.033,
                    0.032971,
                    0.033003,
                    0.033121,
                    0.033121,
                    0.033259,
                    0.033145,
                    0.033128,
                    0.03308,
                    0.032958,
                    0.033118,
                    0.033088,
                    0.033053,
                    0.033036,
                    0.033046,
                    0.033095,
                    0.032974,
                    0.033023,
                    0.033127,
                    0.033084
                ],
                "legality_check": true,
                "exploration_method": 1,
                "sched_str": "{comp00}:I(L1,L2)U(L2,16)"
            },
            {
                "comp00": {
                    "tiling": {},
                    "unrolling_factor": null,
                    "parallelized_dim": "i1",
                    "shiftings": null,
                    "transformations_list": []
                },
                "unfuse_iterators": [],
                "tree_structure": {
                    "roots": [
                        {
                            "loop_name": "i0",
                            "computations_list": [],
                            "child_list": [
                                {
                                    "loop_name": "i1",
                                    "computations_list": [],
                                    "child_list": [
                                        {
                                            "loop_name": "i2",
                                            "computations_list": [
                                                "comp00"
                                            ],
                                            "child_list": []
                                        }
                                    ]
                                }
                            ]
                        }
                    ]
                },
                "execution_times": [
                    6.84363,
                    7.73156,
                    7.69829,
                    8.04811,
                    7.74667,
                    7.76448,
                    7.50611,
                    7.39657,
                    7.46448,
                    7.61662,
                    7.57521,
                    7.61025,
                    7.34899,
                    7.42183,
                    7.6655,
                    7.4943,
                    7.56191,
                    7.54011,
                    7.25971,
                    7.40266,
                    7.65738,
                    7.35721,
                    7.33636,
                    7.49093,
                    7.73864,
                    7.48695,
                    7.41674,
                    7.60924,
                    7.37581,
                    7.2659
                ],
                "legality_check": true,
                "exploration_method": 1,
                "sched_str": "{comp00}:P(L1)"
            },
            {
                "comp00": {
                    "tiling": {},
                    "unrolling_factor": null,
                    "parallelized_dim": "i2",
                    "shiftings": null,
                    "transformations_list": []
                },
                "unfuse_iterators": [],
                "tree_structure": {
                    "roots": [
                        {
                            "loop_name": "i0",
                            "computations_list": [],
                            "child_list": [
                                {
                                    "loop_name": "i1",
                                    "computations_list": [],
                                    "child_list": [
                                        {
                                            "loop_name": "i2",
                                            "computations_list": [
                                                "comp00"
                                            ],
                                            "child_list": []
                                        }
                                    ]
                                }
                            ]
                        }
                    ]
                },
                "execution_times": [
                    31.073
                ],
                "legality_check": true,
                "exploration_method": 1,
                "sched_str": "{comp00}:P(L2)"
            },
            {
                "comp00": {
                    "tiling": {},
                    "unrolling_factor": 4,
                    "parallelized_dim": null,
                    "shiftings": null,
                    "transformations_list": []
                },
                "unfuse_iterators": [],
                "tree_structure": {
                    "roots": [
                        {
                            "loop_name": "i0",
                            "computations_list": [],
                            "child_list": [
                                {
                                    "loop_name": "i1",
                                    "computations_list": [],
                                    "child_list": [
                                        {
                                            "loop_name": "i2",
                                            "computations_list": [
                                                "comp00"
                                            ],
                                            "child_list": []
                                        }
                                    ]
                                }
                            ]
                        }
                    ]
                },
                "execution_times": [
                    0.051539,
                    0.026972,
                    0.026889,
                    0.033612,
                    0.027005,
                    0.026819,
                    0.026861,
                    0.02691,
                    0.026692,
                    0.026721,
                    0.026708,
                    0.0412,
                    0.025767,
                    0.025881,
                    0.025737,
                    0.025737,
                    0.025781,
                    0.025856,
                    0.025703,
                    0.025782,
                    0.025919,
                    0.025897,
                    0.025901,
                    0.025816,
                    0.025794,
                    0.025817,
                    0.025749,
                    0.025789,
                    0.025825,
                    0.025923
                ],
                "legality_check": true,
                "exploration_method": 1,
                "sched_str": "{comp00}:U(L2,4)"
            },
            {
                "comp00": {
                    "tiling": {},
                    "unrolling_factor": 8,
                    "parallelized_dim": null,
                    "shiftings": null,
                    "transformations_list": []
                },
                "unfuse_iterators": [],
                "tree_structure": {
                    "roots": [
                        {
                            "loop_name": "i0",
                            "computations_list": [],
                            "child_list": [
                                {
                                    "loop_name": "i1",
                                    "computations_list": [],
                                    "child_list": [
                                        {
                                            "loop_name": "i2",
                                            "computations_list": [
                                                "comp00"
                                            ],
                                            "child_list": []
                                        }
                                    ]
                                }
                            ]
                        }
                    ]
                },
                "execution_times": [
                    0.061276,
                    0.027126,
                    0.026697,
                    0.026634,
                    0.026652,
                    0.026783,
                    0.026534,
                    0.026594,
                    0.026466,
                    0.026472,
                    0.02659,
                    0.026577,
                    0.026621,
                    0.026481,
                    0.026478,
                    0.0266,
                    0.026539,
                    0.026543,
                    0.026522,
                    0.026628,
                    0.026627,
                    0.026477,
                    0.026585,
                    0.02672,
                    0.026585,
                    0.034591,
                    0.026694,
                    0.026797,
                    0.026628,
                    0.026742
                ],
                "legality_check": true,
                "exploration_method": 1,
                "sched_str": "{comp00}:U(L2,8)"
            },
            {
                "comp00": {
                    "tiling": {},
                    "unrolling_factor": 16,
                    "parallelized_dim": null,
                    "shiftings": null,
                    "transformations_list": []
                },
                "unfuse_iterators": [],
                "tree_structure": {
                    "roots": [
                        {
                            "loop_name": "i0",
                            "computations_list": [],
                            "child_list": [
                                {
                                    "loop_name": "i1",
                                    "computations_list": [],
                                    "child_list": [
                                        {
                                            "loop_name": "i2",
                                            "computations_list": [
                                                "comp00"
                                            ],
                                            "child_list": []
                                        }
                                    ]
                                }
                            ]
                        }
                    ]
                },
                "execution_times": [
                    0.045424,
                    0.031568,
                    0.031465,
                    0.031199,
                    0.031191,
                    0.031109,
                    0.03119,
                    0.031096,
                    0.030994,
                    0.031114,
                    0.031018,
                    0.031048,
                    0.031121,
                    0.031079,
                    0.030943,
                    0.031215,
                    0.031207,
                    0.031076,
                    0.031336,
                    0.040182,
                    0.031231,
                    0.031063,
                    0.031061,
                    0.030926,
                    0.031086,
                    0.031109,
                    0.031159,
                    0.031178,
                    0.031138,
                    0.031434
                ],
                "legality_check": true,
                "exploration_method": 1,
                "sched_str": "{comp00}:U(L2,16)"
            },
            {
                "comp00": {
                    "tiling": {},
                    "unrolling_factor": 4,
                    "parallelized_dim": "i1",
                    "shiftings": null,
                    "transformations_list": []
                },
                "unfuse_iterators": [],
                "tree_structure": {
                    "roots": [
                        {
                            "loop_name": "i0",
                            "computations_list": [],
                            "child_list": [
                                {
                                    "loop_name": "i1",
                                    "computations_list": [],
                                    "child_list": [
                                        {
                                            "loop_name": "i2",
                                            "computations_list": [
                                                "comp00"
                                            ],
                                            "child_list": []
                                        }
                                    ]
                                }
                            ]
                        }
                    ]
                },
                "execution_times": [
                    8.63127,
                    7.23579,
                    7.10872,
                    7.01693,
                    7.07557,
                    7.05629,
                    6.85187,
                    6.65658,
                    6.89164,
                    7.05744,
                    7.25292,
                    7.44069,
                    7.49431,
                    7.30977,
                    7.11771,
                    7.45398,
                    7.29183,
                    7.52858,
                    7.44958,
                    7.52504,
                    7.47073,
                    7.46621,
                    7.44654,
                    7.53641,
                    7.67258,
                    7.49869,
                    7.38202,
                    7.30361,
                    7.45011,
                    7.38862
                ],
                "legality_check": true,
                "exploration_method": 1,
                "sched_str": "{comp00}:P(L1)U(L2,4)"
            },
            {
                "comp00": {
                    "tiling": {},
                    "unrolling_factor": 8,
                    "parallelized_dim": "i1",
                    "shiftings": null,
                    "transformations_list": []
                },
                "unfuse_iterators": [],
                "tree_structure": {
                    "roots": [
                        {
                            "loop_name": "i0",
                            "computations_list": [],
                            "child_list": [
                                {
                                    "loop_name": "i1",
                                    "computations_list": [],
                                    "child_list": [
                                        {
                                            "loop_name": "i2",
                                            "computations_list": [
                                                "comp00"
                                            ],
                                            "child_list": []
                                        }
                                    ]
                                }
                            ]
                        }
                    ]
                },
                "execution_times": [
                    6.76681,
                    5.7896,
                    5.76436,
                    5.5685,
                    5.52457,
                    5.30152,
                    5.41002,
                    5.4515,
                    5.63396,
                    6.1517,
                    5.94304,
                    6.00801,
                    5.86384,
                    5.99458,
                    6.01641,
                    6.12133,
                    6.47293,
                    6.63777,
                    6.22081,
                    6.05006,
                    6.5775,
                    6.44351,
                    6.45825,
                    6.49811,
                    6.49453,
                    6.34786,
                    6.50021,
                    6.61754,
                    6.51861,
                    6.06933
                ],
                "legality_check": true,
                "exploration_method": 1,
                "sched_str": "{comp00}:P(L1)U(L2,8)"
            },
            {
                "comp00": {
                    "tiling": {},
                    "unrolling_factor": 16,
                    "parallelized_dim": "i1",
                    "shiftings": null,
                    "transformations_list": []
                },
                "unfuse_iterators": [],
                "tree_structure": {
                    "roots": [
                        {
                            "loop_name": "i0",
                            "computations_list": [],
                            "child_list": [
                                {
                                    "loop_name": "i1",
                                    "computations_list": [],
                                    "child_list": [
                                        {
                                            "loop_name": "i2",
                                            "computations_list": [
                                                "comp00"
                                            ],
                                            "child_list": []
                                        }
                                    ]
                                }
                            ]
                        }
                    ]
                },
                "execution_times": [
                    6.64965,
                    6.04996,
                    6.12071,
                    5.60259,
                    5.61923,
                    5.48973,
                    5.50415,
                    5.63954,
                    6.15695,
                    6.64027,
                    6.58996,
                    6.27196,
                    6.18171,
                    6.15407,
                    6.19707,
                    6.14479,
                    6.20074,
                    6.0582,
                    6.1627,
                    5.95375,
                    6.10104,
                    6.13063,
                    6.02167,
                    6.2058,
                    6.00874,
                    6.29077,
                    6.70891,
                    6.60672,
                    6.69052,
                    6.63553
                ],
                "legality_check": true,
                "exploration_method": 1,
                "sched_str": "{comp00}:P(L1)U(L2,16)"
            }
        ],
        "exploration_trace": {
            "id": 0,
            "schedule": "",
            "depth": 1,
            "evaluation": 0.031073,
            "children": [
                {
                    "id": 1,
                    "schedule": "I(L0,L1)",
                    "depth": 1,
                    "evaluation": 0.025301,
                    "children": []
                },
                {
                    "id": 2,
                    "schedule": "I(L0,L2)",
                    "depth": 1,
                    "evaluation": 0.181842,
                    "children": []
                },
                {
                    "id": 3,
                    "schedule": "I(L1,L2)",
                    "depth": 1,
                    "evaluation": 0.032266,
                    "children": [
                        {
                            "id": 4,
                            "schedule": "I(L1,L2)P(L1)",
                            "depth": 2,
                            "evaluation": 5.99537,
                            "children": [
                                {
                                    "id": 9,
                                    "schedule": "I(L1,L2)P(L1)U(L2,4)",
                                    "depth": 3,
                                    "evaluation": 7.08329,
                                    "children": []
                                },
                                {
                                    "id": 10,
                                    "schedule": "I(L1,L2)P(L1)U(L2,8)",
                                    "depth": 3,
                                    "evaluation": 7.30408,
                                    "children": []
                                },
                                {
                                    "id": 11,
                                    "schedule": "I(L1,L2)P(L1)U(L2,16)",
                                    "depth": 3,
                                    "evaluation": 7.0347,
                                    "children": []
                                }
                            ]
                        },
                        {
                            "id": 5,
                            "schedule": "I(L1,L2)P(L2)",
                            "depth": 2,
                            "evaluation": 31.073,
                            "children": []
                        },
                        {
                            "id": 3,
                            "schedule": "I(L1,L2)",
                            "depth": 2,
                            "evaluation": 0.032266,
                            "children": [
                                {
                                    "id": 6,
                                    "schedule": "I(L1,L2)U(L2,4)",
                                    "depth": 3,
                                    "evaluation": 0.027647,
                                    "children": []
                                },
                                {
                                    "id": 7,
                                    "schedule": "I(L1,L2)U(L2,8)",
                                    "depth": 3,
                                    "evaluation": 0.025862,
                                    "children": []
                                },
                                {
                                    "id": 8,
                                    "schedule": "I(L1,L2)U(L2,16)",
                                    "depth": 3,
                                    "evaluation": 0.032909,
                                    "children": []
                                }
                            ]
                        }
                    ]
                },
                {
                    "id": 0,
                    "schedule": "",
                    "depth": 1,
                    "evaluation": 0.031073,
                    "children": [
                        {
                            "id": 12,
                            "schedule": "P(L1)",
                            "depth": 2,
                            "evaluation": 6.84363,
                            "children": [
                                {
                                    "id": 17,
                                    "schedule": "P(L1)U(L2,4)",
                                    "depth": 3,
                                    "evaluation": 6.65658,
                                    "children": []
                                },
                                {
                                    "id": 18,
                                    "schedule": "P(L1)U(L2,8)",
                                    "depth": 3,
                                    "evaluation": 5.30152,
                                    "children": []
                                },
                                {
                                    "id": 19,
                                    "schedule": "P(L1)U(L2,16)",
                                    "depth": 3,
                                    "evaluation": 5.48973,
                                    "children": []
                                }
                            ]
                        },
                        {
                            "id": 13,
                            "schedule": "P(L2)",
                            "depth": 2,
                            "evaluation": 31.073,
                            "children": []
                        },
                        {
                            "id": 0,
                            "schedule": "",
                            "depth": 2,
                            "evaluation": 0.031073,
                            "children": [
                                {
                                    "id": 14,
                                    "schedule": "U(L2,4)",
                                    "depth": 3,
                                    "evaluation": 0.025703,
                                    "children": []
                                },
                                {
                                    "id": 15,
                                    "schedule": "U(L2,8)",
                                    "depth": 3,
                                    "evaluation": 0.026466,
                                    "children": []
                                },
                                {
                                    "id": 16,
                                    "schedule": "U(L2,16)",
                                    "depth": 3,
                                    "evaluation": 0.030926,
                                    "children": []
                                }
                            ]
                        }
                    ]
                }
            ]
        }
    }
}