{
    "function645000": {
        "filename": "./function645000_explored_schedules.json",
        "node_name": "lanka09",
        "parameters": {
            "beam_size": 2,
            "max_depth": 6
        },
        "program_annotation": {
            "memory_size": 0.0160064697265625,
            "iterators": {
                "i0": {
                    "lower_bound": 0,
                    "upper_bound": 2048,
                    "parent_iterator": null,
                    "child_iterators": [
                        "i1"
                    ],
                    "computations_list": []
                },
                "i1": {
                    "lower_bound": 1,
                    "upper_bound": 49,
                    "parent_iterator": "i0",
                    "child_iterators": [],
                    "computations_list": [
                        "comp00"
                    ]
                }
            },
            "computations": {
                "comp00": {
                    "absolute_order": 1,
                    "iterators": [
                        "i0",
                        "i1"
                    ],
                    "comp_is_reduction": true,
                    "number_of_additions": 2,
                    "number_of_subtraction": 0,
                    "number_of_multiplication": 1,
                    "number_of_division": 0,
                    "write_access_relation": "{ comp00[i0, i1] -> buf00[i0] }",
                    "write_buffer_id": 0,
                    "data_type": "float64",
                    "data_type_size": 0,
                    "accesses": [
                        {
                            "access_is_reduction": true,
                            "buffer_id": 0,
                            "access_matrix": [
                                [
                                    1,
                                    0,
                                    0
                                ]
                            ]
                        },
                        {
                            "access_is_reduction": false,
                            "buffer_id": 1,
                            "access_matrix": [
                                [
                                    0,
                                    1,
                                    -1
                                ]
                            ]
                        },
                        {
                            "access_is_reduction": false,
                            "buffer_id": 1,
                            "access_matrix": [
                                [
                                    0,
                                    1,
                                    0
                                ]
                            ]
                        },
                        {
                            "access_is_reduction": false,
                            "buffer_id": 1,
                            "access_matrix": [
                                [
                                    0,
                                    1,
                                    1
                                ]
                            ]
                        }
                    ],
                    "expression_representation": {
                        "expr_type": "add",
                        "children": [
                            {
                                "expr_type": "add",
                                "children": [
                                    {
                                        "expr_type": "mul",
                                        "children": [
                                            {
                                                "expr_type": "access",
                                                "children": []
                                            },
                                            {
                                                "expr_type": "access",
                                                "children": []
                                            }
                                        ]
                                    },
                                    {
                                        "expr_type": "access",
                                        "children": []
                                    }
                                ]
                            },
                            {
                                "expr_type": "access",
                                "children": []
                            }
                        ]
                    }
                }
            }
        },
        "initial_execution_time": 0.213774,
        "schedules_list": [
            {
                "comp00": {
                    "tiling": {},
                    "unrolling_factor": null,
                    "parallelized_dim": null,
                    "shiftings": null,
                    "transformations_list": []
                },
                "unfuse_iterators": [],
                "tree_structure": {
                    "roots": [
                        {
                            "loop_name": "i0",
                            "computations_list": [],
                            "child_list": [
                                {
                                    "loop_name": "i1",
                                    "computations_list": [
                                        "comp00"
                                    ],
                                    "child_list": []
                                }
                            ]
                        }
                    ]
                },
                "execution_times": [
                    0.213774,
                    0.231293,
                    0.225485,
                    0.227928,
                    0.228721,
                    0.227093,
                    0.228458,
                    0.229545,
                    0.229543,
                    0.227078,
                    0.228565,
                    0.225437,
                    0.22846,
                    0.229541,
                    0.229536,
                    0.225858,
                    0.229536,
                    0.225445,
                    0.285989,
                    0.270585,
                    0.274316,
                    0.274469,
                    0.274482,
                    0.274468,
                    0.274404,
                    0.274472,
                    0.275471,
                    0.275469,
                    0.274026,
                    0.274466
                ],
                "legality_check": true,
                "exploration_method": 1,
                "sched_str": "{comp00}:"
            },
            {
                "comp00": {
                    "tiling": {},
                    "unrolling_factor": null,
                    "parallelized_dim": null,
                    "shiftings": null,
                    "transformations_list": [
                        [
                            1,
                            0,
                            1,
                            0,
                            0,
                            0,
                            0,
                            0,
                            0,
                            0,
                            0,
                            0,
                            0,
                            0,
                            0,
                            0
                        ]
                    ]
                },
                "unfuse_iterators": [],
                "tree_structure": {
                    "roots": [
                        {
                            "loop_name": "i0",
                            "computations_list": [],
                            "child_list": [
                                {
                                    "loop_name": "i1",
                                    "computations_list": [
                                        "comp00"
                                    ],
                                    "child_list": []
                                }
                            ]
                        }
                    ]
                },
                "execution_times": [
                    0.041303,
                    0.03175,
                    0.031521,
                    0.031659,
                    0.031505,
                    0.031479,
                    0.031494,
                    0.031476,
                    0.031479,
                    0.031474,
                    0.031492,
                    0.031475,
                    0.031495,
                    0.031478,
                    0.031504,
                    0.031494,
                    0.031504,
                    0.031518,
                    0.031511,
                    0.031469,
                    0.031491,
                    0.031497,
                    0.031484,
                    0.041805,
                    0.0317,
                    0.031523,
                    0.031496,
                    0.031528,
                    0.031505,
                    0.031531
                ],
                "legality_check": true,
                "exploration_method": 1,
                "sched_str": "{comp00}:I(L0,L1)"
            },
            {
                "comp00": {
                    "tiling": {},
                    "unrolling_factor": null,
                    "parallelized_dim": null,
                    "shiftings": null,
                    "transformations_list": [
                        [
                            3,
                            0,
                            0,
                            0,
                            0,
                            1,
                            0,
                            1,
                            1,
                            0,
                            1,
                            0,
                            0,
                            0,
                            0,
                            0
                        ]
                    ]
                },
                "unfuse_iterators": [],
                "tree_structure": {
                    "roots": [
                        {
                            "loop_name": "i0",
                            "computations_list": [],
                            "child_list": [
                                {
                                    "loop_name": "i1",
                                    "computations_list": [
                                        "comp00"
                                    ],
                                    "child_list": []
                                }
                            ]
                        }
                    ]
                },
                "execution_times": [
                    0.100905,
                    0.098427,
                    0.097928,
                    0.097899,
                    0.097519,
                    0.097459,
                    0.097347,
                    0.097427,
                    0.097308,
                    0.097322,
                    0.09728,
                    0.097254,
                    0.097337,
                    0.097231,
                    0.133588,
                    0.101153,
                    0.100753,
                    0.150626,
                    0.148528,
                    0.148524,
                    0.148541,
                    0.148556,
                    0.148522,
                    0.148551,
                    0.148434,
                    0.148529,
                    0.148493,
                    0.148432,
                    0.14851,
                    0.148503
                ],
                "legality_check": true,
                "exploration_method": 1,
                "sched_str": "{comp00}:S(L0,L1,1,1)"
            },
            {
                "comp00": {
                    "tiling": {},
                    "unrolling_factor": null,
                    "parallelized_dim": null,
                    "shiftings": null,
                    "transformations_list": [
                        [
                            3,
                            0,
                            0,
                            0,
                            0,
                            1,
                            0,
                            1,
                            2,
                            0,
                            1,
                            0,
                            0,
                            0,
                            0,
                            0
                        ]
                    ]
                },
                "unfuse_iterators": [],
                "tree_structure": {
                    "roots": [
                        {
                            "loop_name": "i0",
                            "computations_list": [],
                            "child_list": [
                                {
                                    "loop_name": "i1",
                                    "computations_list": [
                                        "comp00"
                                    ],
                                    "child_list": []
                                }
                            ]
                        }
                    ]
                },
                "execution_times": [
                    0.35827,
                    0.266882,
                    0.313795,
                    0.314641,
                    0.313968,
                    0.3134,
                    0.313962,
                    0.313288,
                    0.314065,
                    0.313282,
                    0.313995,
                    0.313294,
                    0.313806,
                    0.289663,
                    0.304687,
                    0.314086,
                    0.313311,
                    0.314063,
                    0.313339,
                    0.314344,
                    0.314349,
                    0.313289,
                    0.313805,
                    0.313814,
                    0.314079,
                    0.324216,
                    0.240718,
                    0.222543,
                    0.222305,
                    0.222657
                ],
                "legality_check": true,
                "exploration_method": 1,
                "sched_str": "{comp00}:S(L0,L1,1,2)"
            },
            {
                "comp00": {
                    "tiling": {},
                    "unrolling_factor": null,
                    "parallelized_dim": null,
                    "shiftings": null,
                    "transformations_list": [
                        [
                            3,
                            0,
                            0,
                            0,
                            0,
                            1,
                            0,
                            1,
                            3,
                            0,
                            1,
                            0,
                            0,
                            0,
                            0,
                            0
                        ]
                    ]
                },
                "unfuse_iterators": [],
                "tree_structure": {
                    "roots": [
                        {
                            "loop_name": "i0",
                            "computations_list": [],
                            "child_list": [
                                {
                                    "loop_name": "i1",
                                    "computations_list": [
                                        "comp00"
                                    ],
                                    "child_list": []
                                }
                            ]
                        }
                    ]
                },
                "execution_times": [
                    0.190702,
                    0.194758,
                    0.197282,
                    0.197564,
                    0.196985,
                    0.225881,
                    0.242058,
                    0.272236,
                    0.272511,
                    0.272506,
                    0.272196,
                    0.272222,
                    0.272571,
                    0.272519,
                    0.271953,
                    0.272627,
                    0.272089,
                    0.272154,
                    0.272563,
                    0.272543,
                    0.279937,
                    0.272439,
                    0.272478,
                    0.272585,
                    0.272574,
                    0.271989,
                    0.272129,
                    0.272514,
                    0.272138,
                    0.271854
                ],
                "legality_check": true,
                "exploration_method": 1,
                "sched_str": "{comp00}:S(L0,L1,1,3)"
            },
            {
                "comp00": {
                    "tiling": {},
                    "unrolling_factor": null,
                    "parallelized_dim": "i1",
                    "shiftings": null,
                    "transformations_list": [
                        [
                            3,
                            0,
                            0,
                            0,
                            0,
                            1,
                            0,
                            1,
                            3,
                            0,
                            1,
                            0,
                            0,
                            0,
                            0,
                            0
                        ]
                    ]
                },
                "unfuse_iterators": [],
                "tree_structure": {
                    "roots": [
                        {
                            "loop_name": "i0",
                            "computations_list": [],
                            "child_list": [
                                {
                                    "loop_name": "i1",
                                    "computations_list": [
                                        "comp00"
                                    ],
                                    "child_list": []
                                }
                            ]
                        }
                    ]
                },
                "execution_times": [
                    213.774002
                ],
                "legality_check": true,
                "exploration_method": 1,
                "sched_str": "{comp00}:S(L0,L1,1,3)P(L1)"
            },
            {
                "comp00": {
                    "tiling": {
                        "tiling_depth": 2,
                        "tiling_dims": [
                            "i0",
                            "i1"
                        ],
                        "tiling_factors": [
                            32,
                            32
                        ]
                    },
                    "unrolling_factor": null,
                    "parallelized_dim": null,
                    "shiftings": null,
                    "transformations_list": [
                        [
                            3,
                            0,
                            0,
                            0,
                            0,
                            1,
                            0,
                            1,
                            3,
                            0,
                            1,
                            0,
                            0,
                            0,
                            0,
                            0
                        ]
                    ]
                },
                "unfuse_iterators": [],
                "tree_structure": {
                    "roots": [
                        {
                            "loop_name": "i0",
                            "computations_list": [],
                            "child_list": [
                                {
                                    "loop_name": "i1",
                                    "computations_list": [
                                        "comp00"
                                    ],
                                    "child_list": []
                                }
                            ]
                        }
                    ]
                },
                "execution_times": [
                    0.212344,
                    0.196441,
                    0.1959,
                    0.221367,
                    0.211091,
                    0.229683,
                    0.196182,
                    0.196057,
                    0.196053,
                    0.196098,
                    0.196097,
                    0.196094,
                    0.195986,
                    0.196067,
                    0.196113,
                    0.196103,
                    0.196039,
                    0.19607,
                    0.196052,
                    0.196043,
                    0.19606,
                    0.196029,
                    0.196062,
                    0.260624,
                    0.280424,
                    0.280211,
                    0.280204,
                    0.280099,
                    0.280221,
                    0.280091
                ],
                "legality_check": true,
                "exploration_method": 1,
                "sched_str": "{comp00}:S(L0,L1,1,3)T2(L0,L1,32,32)"
            },
            {
                "comp00": {
                    "tiling": {
                        "tiling_depth": 2,
                        "tiling_dims": [
                            "i0",
                            "i1"
                        ],
                        "tiling_factors": [
                            64,
                            32
                        ]
                    },
                    "unrolling_factor": null,
                    "parallelized_dim": null,
                    "shiftings": null,
                    "transformations_list": [
                        [
                            3,
                            0,
                            0,
                            0,
                            0,
                            1,
                            0,
                            1,
                            3,
                            0,
                            1,
                            0,
                            0,
                            0,
                            0,
                            0
                        ]
                    ]
                },
                "unfuse_iterators": [],
                "tree_structure": {
                    "roots": [
                        {
                            "loop_name": "i0",
                            "computations_list": [],
                            "child_list": [
                                {
                                    "loop_name": "i1",
                                    "computations_list": [
                                        "comp00"
                                    ],
                                    "child_list": []
                                }
                            ]
                        }
                    ]
                },
                "execution_times": [
                    0.252293,
                    0.250388,
                    0.243174,
                    0.244513,
                    0.244344,
                    0.262964,
                    0.244276,
                    0.243989,
                    0.24398,
                    0.243878,
                    0.243973,
                    0.244091,
                    0.244038,
                    0.243999,
                    0.243976,
                    0.243775,
                    0.243851,
                    0.243921,
                    0.243819,
                    0.24401,
                    0.243846,
                    0.299452,
                    0.278866,
                    0.278832,
                    0.278823,
                    0.278655,
                    0.278589,
                    0.27886,
                    0.278837,
                    0.278771
                ],
                "legality_check": true,
                "exploration_method": 1,
                "sched_str": "{comp00}:S(L0,L1,1,3)T2(L0,L1,64,32)"
            },
            {
                "comp00": {
                    "tiling": {
                        "tiling_depth": 2,
                        "tiling_dims": [
                            "i0",
                            "i1"
                        ],
                        "tiling_factors": [
                            128,
                            32
                        ]
                    },
                    "unrolling_factor": null,
                    "parallelized_dim": null,
                    "shiftings": null,
                    "transformations_list": [
                        [
                            3,
                            0,
                            0,
                            0,
                            0,
                            1,
                            0,
                            1,
                            3,
                            0,
                            1,
                            0,
                            0,
                            0,
                            0,
                            0
                        ]
                    ]
                },
                "unfuse_iterators": [],
                "tree_structure": {
                    "roots": [
                        {
                            "loop_name": "i0",
                            "computations_list": [],
                            "child_list": [
                                {
                                    "loop_name": "i1",
                                    "computations_list": [
                                        "comp00"
                                    ],
                                    "child_list": []
                                }
                            ]
                        }
                    ]
                },
                "execution_times": [
                    0.243132,
                    0.240106,
                    0.239838,
                    0.239626,
                    0.24079,
                    0.240686,
                    0.240701,
                    0.240629,
                    0.240636,
                    0.24045,
                    0.240496,
                    0.250667,
                    0.324106,
                    0.339565,
                    0.339485,
                    0.339382,
                    0.339585,
                    0.339536,
                    0.339485,
                    0.33938,
                    0.339454,
                    0.339527,
                    0.339648,
                    0.348557,
                    0.339566,
                    0.339409,
                    0.339417,
                    0.33938,
                    0.339389,
                    0.339332
                ],
                "legality_check": true,
                "exploration_method": 1,
                "sched_str": "{comp00}:S(L0,L1,1,3)T2(L0,L1,128,32)"
            },
            {
                "comp00": {
                    "tiling": {
                        "tiling_depth": 2,
                        "tiling_dims": [
                            "i0",
                            "i1"
                        ],
                        "tiling_factors": [
                            32,
                            32
                        ]
                    },
                    "unrolling_factor": null,
                    "parallelized_dim": "i1",
                    "shiftings": null,
                    "transformations_list": [
                        [
                            3,
                            0,
                            0,
                            0,
                            0,
                            1,
                            0,
                            1,
                            3,
                            0,
                            1,
                            0,
                            0,
                            0,
                            0,
                            0
                        ]
                    ]
                },
                "unfuse_iterators": [],
                "tree_structure": {
                    "roots": [
                        {
                            "loop_name": "i0",
                            "computations_list": [],
                            "child_list": [
                                {
                                    "loop_name": "i1",
                                    "computations_list": [
                                        "comp00"
                                    ],
                                    "child_list": []
                                }
                            ]
                        }
                    ]
                },
                "execution_times": [
                    4.24118,
                    1.19979,
                    0.959745,
                    0.906128,
                    0.99292,
                    0.842636,
                    0.863388,
                    0.921784,
                    0.832117,
                    0.889457,
                    0.918635,
                    0.921121,
                    0.913926,
                    0.797021,
                    0.88453,
                    0.855919,
                    0.892593,
                    0.906052,
                    0.902863,
                    0.910678,
                    0.907742,
                    0.895429,
                    0.935135,
                    0.913949,
                    0.830044,
                    0.911122,
                    0.881913,
                    0.908043,
                    0.849822,
                    0.868679
                ],
                "legality_check": true,
                "exploration_method": 1,
                "sched_str": "{comp00}:S(L0,L1,1,3)P(L1)T2(L0,L1,32,32)"
            },
            {
                "comp00": {
                    "tiling": {
                        "tiling_depth": 2,
                        "tiling_dims": [
                            "i0",
                            "i1"
                        ],
                        "tiling_factors": [
                            64,
                            32
                        ]
                    },
                    "unrolling_factor": null,
                    "parallelized_dim": "i1",
                    "shiftings": null,
                    "transformations_list": [
                        [
                            3,
                            0,
                            0,
                            0,
                            0,
                            1,
                            0,
                            1,
                            3,
                            0,
                            1,
                            0,
                            0,
                            0,
                            0,
                            0
                        ]
                    ]
                },
                "unfuse_iterators": [],
                "tree_structure": {
                    "roots": [
                        {
                            "loop_name": "i0",
                            "computations_list": [],
                            "child_list": [
                                {
                                    "loop_name": "i1",
                                    "computations_list": [
                                        "comp00"
                                    ],
                                    "child_list": []
                                }
                            ]
                        }
                    ]
                },
                "execution_times": [
                    2.02469,
                    0.576423,
                    0.529898,
                    0.540368,
                    0.691959,
                    0.555095,
                    0.626829,
                    0.599506,
                    0.625308,
                    0.656513,
                    0.547195,
                    0.549935,
                    0.519106,
                    0.617143,
                    0.635524,
                    0.678321,
                    0.525302,
                    0.539721,
                    0.599673,
                    0.63261,
                    0.536431,
                    0.522503,
                    0.653326,
                    0.529618,
                    0.544319,
                    0.608614,
                    0.633647,
                    0.510687,
                    0.548328,
                    0.633124
                ],
                "legality_check": true,
                "exploration_method": 1,
                "sched_str": "{comp00}:S(L0,L1,1,3)P(L1)T2(L0,L1,64,32)"
            },
            {
                "comp00": {
                    "tiling": {
                        "tiling_depth": 2,
                        "tiling_dims": [
                            "i0",
                            "i1"
                        ],
                        "tiling_factors": [
                            128,
                            32
                        ]
                    },
                    "unrolling_factor": null,
                    "parallelized_dim": "i1",
                    "shiftings": null,
                    "transformations_list": [
                        [
                            3,
                            0,
                            0,
                            0,
                            0,
                            1,
                            0,
                            1,
                            3,
                            0,
                            1,
                            0,
                            0,
                            0,
                            0,
                            0
                        ]
                    ]
                },
                "unfuse_iterators": [],
                "tree_structure": {
                    "roots": [
                        {
                            "loop_name": "i0",
                            "computations_list": [],
                            "child_list": [
                                {
                                    "loop_name": "i1",
                                    "computations_list": [
                                        "comp00"
                                    ],
                                    "child_list": []
                                }
                            ]
                        }
                    ]
                },
                "execution_times": [
                    1.99659,
                    0.553221,
                    0.622042,
                    0.556846,
                    0.418793,
                    0.583276,
                    0.555145,
                    0.419226,
                    0.546513,
                    0.376043,
                    0.399416,
                    0.515995,
                    0.580316,
                    0.417109,
                    0.583108,
                    0.573193,
                    0.568846,
                    0.391701,
                    0.509519,
                    0.527927,
                    0.603167,
                    0.434597,
                    0.432528,
                    0.448416,
                    0.654355,
                    0.731942,
                    0.672472,
                    0.441985,
                    0.693037,
                    0.683493
                ],
                "legality_check": true,
                "exploration_method": 1,
                "sched_str": "{comp00}:S(L0,L1,1,3)P(L1)T2(L0,L1,128,32)"
            },
            {
                "comp00": {
                    "tiling": {},
                    "unrolling_factor": null,
                    "parallelized_dim": "i0",
                    "shiftings": null,
                    "transformations_list": []
                },
                "unfuse_iterators": [],
                "tree_structure": {
                    "roots": [
                        {
                            "loop_name": "i0",
                            "computations_list": [],
                            "child_list": [
                                {
                                    "loop_name": "i1",
                                    "computations_list": [
                                        "comp00"
                                    ],
                                    "child_list": []
                                }
                            ]
                        }
                    ]
                },
                "execution_times": [
                    3.19371,
                    1.4656,
                    1.5561,
                    1.4765,
                    1.49397,
                    1.29114,
                    1.31676,
                    1.3655,
                    1.30138,
                    1.31568,
                    1.36031,
                    1.25967,
                    1.295,
                    1.23278,
                    1.29922,
                    1.31779,
                    1.23172,
                    1.25244,
                    1.29299,
                    1.22544,
                    1.27975,
                    1.30137,
                    1.28487,
                    1.29712,
                    1.17912,
                    1.20836,
                    1.23274,
                    1.28706,
                    1.20524,
                    1.22749
                ],
                "legality_check": true,
                "exploration_method": 1,
                "sched_str": "{comp00}:P(L0)"
            },
            {
                "comp00": {
                    "tiling": {
                        "tiling_depth": 2,
                        "tiling_dims": [
                            "i0",
                            "i1"
                        ],
                        "tiling_factors": [
                            64,
                            32
                        ]
                    },
                    "unrolling_factor": null,
                    "parallelized_dim": null,
                    "shiftings": null,
                    "transformations_list": []
                },
                "unfuse_iterators": [],
                "tree_structure": {
                    "roots": [
                        {
                            "loop_name": "i0",
                            "computations_list": [],
                            "child_list": [
                                {
                                    "loop_name": "i1",
                                    "computations_list": [
                                        "comp00"
                                    ],
                                    "child_list": []
                                }
                            ]
                        }
                    ]
                },
                "execution_times": [
                    0.261156,
                    0.260874,
                    0.262211,
                    0.260798,
                    0.260367,
                    0.260459,
                    0.260443,
                    0.260631,
                    0.260474,
                    0.260496,
                    0.260329,
                    0.269356,
                    0.297689,
                    0.347276,
                    0.3471,
                    0.347244,
                    0.347285,
                    0.347267,
                    0.347266,
                    0.347247,
                    0.347279,
                    0.347253,
                    0.347323,
                    0.355173,
                    0.380667,
                    0.367667,
                    0.367718,
                    0.367702,
                    0.367767,
                    0.367722
                ],
                "legality_check": true,
                "exploration_method": 1,
                "sched_str": "{comp00}:T2(L0,L1,64,32)"
            },
            {
                "comp00": {
                    "tiling": {
                        "tiling_depth": 2,
                        "tiling_dims": [
                            "i0",
                            "i1"
                        ],
                        "tiling_factors": [
                            128,
                            32
                        ]
                    },
                    "unrolling_factor": null,
                    "parallelized_dim": null,
                    "shiftings": null,
                    "transformations_list": []
                },
                "unfuse_iterators": [],
                "tree_structure": {
                    "roots": [
                        {
                            "loop_name": "i0",
                            "computations_list": [],
                            "child_list": [
                                {
                                    "loop_name": "i1",
                                    "computations_list": [
                                        "comp00"
                                    ],
                                    "child_list": []
                                }
                            ]
                        }
                    ]
                },
                "execution_times": [
                    0.261404,
                    0.259683,
                    0.271616,
                    0.260908,
                    0.260484,
                    0.259523,
                    0.259606,
                    0.259425,
                    0.260005,
                    0.26101,
                    0.259508,
                    0.260648,
                    0.259529,
                    0.259491,
                    0.25945,
                    0.260021,
                    0.259526,
                    0.267254,
                    0.260033,
                    0.260531,
                    0.260023,
                    0.260854,
                    0.260789,
                    0.260816,
                    0.260063,
                    0.260042,
                    0.261235,
                    0.260077,
                    0.260721,
                    0.259536
                ],
                "legality_check": true,
                "exploration_method": 1,
                "sched_str": "{comp00}:T2(L0,L1,128,32)"
            },
            {
                "comp00": {
                    "tiling": {},
                    "unrolling_factor": 4,
                    "parallelized_dim": null,
                    "shiftings": null,
                    "transformations_list": []
                },
                "unfuse_iterators": [],
                "tree_structure": {
                    "roots": [
                        {
                            "loop_name": "i0",
                            "computations_list": [],
                            "child_list": [
                                {
                                    "loop_name": "i1",
                                    "computations_list": [
                                        "comp00"
                                    ],
                                    "child_list": []
                                }
                            ]
                        }
                    ]
                },
                "execution_times": [
                    0.232823,
                    0.231036,
                    0.242756,
                    0.231093,
                    0.23146,
                    0.23262,
                    0.231188,
                    0.232174,
                    0.232188,
                    0.229765,
                    0.228928,
                    0.230577,
                    0.232168,
                    0.232198,
                    0.231391,
                    0.232201,
                    0.232168,
                    0.232605,
                    0.232197,
                    0.237062,
                    0.231447,
                    0.234631,
                    0.230585,
                    0.232598,
                    0.230577,
                    0.230576,
                    0.230895,
                    0.230896,
                    0.232598,
                    0.231451
                ],
                "legality_check": true,
                "exploration_method": 1,
                "sched_str": "{comp00}:U(L1,4)"
            },
            {
                "comp00": {
                    "tiling": {},
                    "unrolling_factor": 16,
                    "parallelized_dim": null,
                    "shiftings": null,
                    "transformations_list": []
                },
                "unfuse_iterators": [],
                "tree_structure": {
                    "roots": [
                        {
                            "loop_name": "i0",
                            "computations_list": [],
                            "child_list": [
                                {
                                    "loop_name": "i1",
                                    "computations_list": [
                                        "comp00"
                                    ],
                                    "child_list": []
                                }
                            ]
                        }
                    ]
                },
                "execution_times": [
                    0.094327,
                    0.093642,
                    0.093575,
                    0.093599,
                    0.093592,
                    0.093555,
                    0.093554,
                    0.093562,
                    0.093602,
                    0.093553,
                    0.093554,
                    0.093575,
                    0.093565,
                    0.093577,
                    0.093557,
                    0.093574,
                    0.093562,
                    0.09355,
                    0.093585,
                    0.093555,
                    0.093553,
                    0.093577,
                    0.093558,
                    0.093571,
                    0.093552,
                    0.093572,
                    0.093569,
                    0.093562,
                    0.093562,
                    0.09355
                ],
                "legality_check": true,
                "exploration_method": 1,
                "sched_str": "{comp00}:U(L1,16)"
            },
            {
                "comp00": {
                    "tiling": {
                        "tiling_depth": 2,
                        "tiling_dims": [
                            "i0",
                            "i1"
                        ],
                        "tiling_factors": [
                            32,
                            32
                        ]
                    },
                    "unrolling_factor": null,
                    "parallelized_dim": "i0",
                    "shiftings": null,
                    "transformations_list": []
                },
                "unfuse_iterators": [],
                "tree_structure": {
                    "roots": [
                        {
                            "loop_name": "i0",
                            "computations_list": [],
                            "child_list": [
                                {
                                    "loop_name": "i1",
                                    "computations_list": [
                                        "comp00"
                                    ],
                                    "child_list": []
                                }
                            ]
                        }
                    ]
                },
                "execution_times": [
                    1.62193,
                    0.26967,
                    0.206382,
                    0.200122,
                    0.21971,
                    0.239082,
                    0.197538,
                    0.223685,
                    0.27097,
                    0.257364,
                    0.19937,
                    0.19493,
                    0.195586,
                    0.204818,
                    0.201405,
                    0.20036,
                    0.211292,
                    0.198487,
                    0.191599,
                    0.194177,
                    0.205286,
                    0.200256,
                    0.254113,
                    0.253122,
                    0.191809,
                    0.215481,
                    0.224027,
                    0.239185,
                    0.260216,
                    0.287911
                ],
                "legality_check": true,
                "exploration_method": 1,
                "sched_str": "{comp00}:P(L0)T2(L0,L1,32,32)"
            },
            {
                "comp00": {
                    "tiling": {
                        "tiling_depth": 2,
                        "tiling_dims": [
                            "i0",
                            "i1"
                        ],
                        "tiling_factors": [
                            64,
                            32
                        ]
                    },
                    "unrolling_factor": null,
                    "parallelized_dim": "i0",
                    "shiftings": null,
                    "transformations_list": []
                },
                "unfuse_iterators": [],
                "tree_structure": {
                    "roots": [
                        {
                            "loop_name": "i0",
                            "computations_list": [],
                            "child_list": [
                                {
                                    "loop_name": "i1",
                                    "computations_list": [
                                        "comp00"
                                    ],
                                    "child_list": []
                                }
                            ]
                        }
                    ]
                },
                "execution_times": [
                    2.07876,
                    0.196755,
                    0.188353,
                    0.173057,
                    0.176486,
                    0.182058,
                    0.154284,
                    0.191865,
                    0.140845,
                    0.133599,
                    0.138184,
                    0.134738,
                    0.134095,
                    0.12533,
                    0.144662,
                    0.135561,
                    0.140475,
                    0.135397,
                    0.144739,
                    0.135643,
                    0.129958,
                    0.125705,
                    0.140778,
                    0.141888,
                    0.137733,
                    0.131193,
                    0.133221,
                    0.128793,
                    0.143132,
                    0.139479
                ],
                "legality_check": true,
                "exploration_method": 1,
                "sched_str": "{comp00}:P(L0)T2(L0,L1,64,32)"
            },
            {
                "comp00": {
                    "tiling": {
                        "tiling_depth": 2,
                        "tiling_dims": [
                            "i0",
                            "i1"
                        ],
                        "tiling_factors": [
                            128,
                            32
                        ]
                    },
                    "unrolling_factor": null,
                    "parallelized_dim": "i0",
                    "shiftings": null,
                    "transformations_list": []
                },
                "unfuse_iterators": [],
                "tree_structure": {
                    "roots": [
                        {
                            "loop_name": "i0",
                            "computations_list": [],
                            "child_list": [
                                {
                                    "loop_name": "i1",
                                    "computations_list": [
                                        "comp00"
                                    ],
                                    "child_list": []
                                }
                            ]
                        }
                    ]
                },
                "execution_times": [
                    2.41631,
                    0.126172,
                    0.099369,
                    0.101055,
                    0.103599,
                    0.099598,
                    0.097578,
                    0.101194,
                    0.095266,
                    0.097487,
                    0.106632,
                    0.09686,
                    0.095394,
                    0.096776,
                    0.099602,
                    0.097755,
                    0.104292,
                    0.095546,
                    0.105116,
                    0.114194,
                    0.096146,
                    0.098737,
                    0.097182,
                    0.101765,
                    0.101716,
                    0.10847,
                    0.10053,
                    0.103575,
                    0.099778,
                    0.103895
                ],
                "legality_check": true,
                "exploration_method": 1,
                "sched_str": "{comp00}:P(L0)T2(L0,L1,128,32)"
            },
            {
                "comp00": {
                    "tiling": {},
                    "unrolling_factor": 4,
                    "parallelized_dim": "i0",
                    "shiftings": null,
                    "transformations_list": []
                },
                "unfuse_iterators": [],
                "tree_structure": {
                    "roots": [
                        {
                            "loop_name": "i0",
                            "computations_list": [],
                            "child_list": [
                                {
                                    "loop_name": "i1",
                                    "computations_list": [
                                        "comp00"
                                    ],
                                    "child_list": []
                                }
                            ]
                        }
                    ]
                },
                "execution_times": [
                    2.70415,
                    1.66904,
                    1.63787,
                    1.6203,
                    1.66219,
                    1.61302,
                    1.32238,
                    1.37378,
                    1.3362,
                    1.34709,
                    1.3674,
                    1.37577,
                    1.33063,
                    1.3459,
                    1.36233,
                    1.38637,
                    1.33104,
                    1.33837,
                    1.37839,
                    1.37653,
                    1.34329,
                    1.30976,
                    1.28333,
                    1.29917,
                    1.28183,
                    1.30244,
                    1.29118,
                    1.3396,
                    1.31298,
                    1.31982
                ],
                "legality_check": true,
                "exploration_method": 1,
                "sched_str": "{comp00}:P(L0)U(L1,4)"
            },
            {
                "comp00": {
                    "tiling": {},
                    "unrolling_factor": 8,
                    "parallelized_dim": "i0",
                    "shiftings": null,
                    "transformations_list": []
                },
                "unfuse_iterators": [],
                "tree_structure": {
                    "roots": [
                        {
                            "loop_name": "i0",
                            "computations_list": [],
                            "child_list": [
                                {
                                    "loop_name": "i1",
                                    "computations_list": [
                                        "comp00"
                                    ],
                                    "child_list": []
                                }
                            ]
                        }
                    ]
                },
                "execution_times": [
                    2.79556,
                    1.55898,
                    1.55621,
                    1.57988,
                    1.50514,
                    1.37511,
                    1.37549,
                    1.4087,
                    1.47576,
                    1.42685,
                    1.34563,
                    1.36898,
                    1.44067,
                    1.36501,
                    1.3737,
                    1.38918,
                    1.33992,
                    1.45212,
                    1.37882,
                    1.38881,
                    1.40855,
                    1.45536,
                    1.39346,
                    1.3562,
                    1.42432,
                    1.41517,
                    1.33992,
                    1.36923,
                    1.42665,
                    1.35034
                ],
                "legality_check": true,
                "exploration_method": 1,
                "sched_str": "{comp00}:P(L0)U(L1,8)"
            },
            {
                "comp00": {
                    "tiling": {},
                    "unrolling_factor": 16,
                    "parallelized_dim": "i0",
                    "shiftings": null,
                    "transformations_list": []
                },
                "unfuse_iterators": [],
                "tree_structure": {
                    "roots": [
                        {
                            "loop_name": "i0",
                            "computations_list": [],
                            "child_list": [
                                {
                                    "loop_name": "i1",
                                    "computations_list": [
                                        "comp00"
                                    ],
                                    "child_list": []
                                }
                            ]
                        }
                    ]
                },
                "execution_times": [
                    2.77208,
                    1.62361,
                    1.60548,
                    1.61404,
                    1.47204,
                    1.41292,
                    1.33731,
                    1.34966,
                    1.30097,
                    1.3177,
                    1.31469,
                    1.32394,
                    1.29572,
                    1.29294,
                    1.35613,
                    1.29186,
                    1.30388,
                    1.3617,
                    1.272,
                    1.34438,
                    1.33105,
                    1.36751,
                    1.29476,
                    1.24966,
                    1.35225,
                    1.33486,
                    1.31573,
                    1.2904,
                    1.3471,
                    1.32031
                ],
                "legality_check": true,
                "exploration_method": 1,
                "sched_str": "{comp00}:P(L0)U(L1,16)"
            },
            {
                "comp00": {
                    "tiling": {
                        "tiling_depth": 2,
                        "tiling_dims": [
                            "i1",
                            "i0"
                        ],
                        "tiling_factors": [
                            32,
                            32
                        ]
                    },
                    "unrolling_factor": null,
                    "parallelized_dim": null,
                    "shiftings": null,
                    "transformations_list": [
                        [
                            1,
                            0,
                            1,
                            0,
                            0,
                            0,
                            0,
                            0,
                            0,
                            0,
                            0,
                            0,
                            0,
                            0,
                            0,
                            0
                        ]
                    ]
                },
                "unfuse_iterators": [],
                "tree_structure": {
                    "roots": [
                        {
                            "loop_name": "i0",
                            "computations_list": [],
                            "child_list": [
                                {
                                    "loop_name": "i1",
                                    "computations_list": [
                                        "comp00"
                                    ],
                                    "child_list": []
                                }
                            ]
                        }
                    ]
                },
                "execution_times": [
                    0.016677,
                    0.027532,
                    0.012503,
                    0.012617,
                    0.012428,
                    0.012435,
                    0.012423,
                    0.012426,
                    0.01242,
                    0.012426,
                    0.012448,
                    0.012436,
                    0.012432,
                    0.012432,
                    0.012445,
                    0.012425,
                    0.012426,
                    0.012439,
                    0.012428,
                    0.012437,
                    0.012423,
                    0.012412,
                    0.012417,
                    0.01242,
                    0.012433,
                    0.012424,
                    0.012429,
                    0.012417,
                    0.01244,
                    0.012428
                ],
                "legality_check": true,
                "exploration_method": 1,
                "sched_str": "{comp00}:I(L0,L1)T2(L1,L0,32,32)"
            },
            {
                "comp00": {
                    "tiling": {
                        "tiling_depth": 2,
                        "tiling_dims": [
                            "i1",
                            "i0"
                        ],
                        "tiling_factors": [
                            32,
                            64
                        ]
                    },
                    "unrolling_factor": null,
                    "parallelized_dim": null,
                    "shiftings": null,
                    "transformations_list": [
                        [
                            1,
                            0,
                            1,
                            0,
                            0,
                            0,
                            0,
                            0,
                            0,
                            0,
                            0,
                            0,
                            0,
                            0,
                            0,
                            0
                        ]
                    ]
                },
                "unfuse_iterators": [],
                "tree_structure": {
                    "roots": [
                        {
                            "loop_name": "i0",
                            "computations_list": [],
                            "child_list": [
                                {
                                    "loop_name": "i1",
                                    "computations_list": [
                                        "comp00"
                                    ],
                                    "child_list": []
                                }
                            ]
                        }
                    ]
                },
                "execution_times": [
                    0.018985,
                    0.013595,
                    0.01349,
                    0.01352,
                    0.01336,
                    0.013364,
                    0.013339,
                    0.013344,
                    0.01335,
                    0.013351,
                    0.013351,
                    0.013362,
                    0.013342,
                    0.013325,
                    0.013346,
                    0.013332,
                    0.013342,
                    0.013352,
                    0.013351,
                    0.013341,
                    0.013327,
                    0.013362,
                    0.013326,
                    0.013351,
                    0.013336,
                    0.013336,
                    0.013339,
                    0.013331,
                    0.013338,
                    0.013358
                ],
                "legality_check": true,
                "exploration_method": 1,
                "sched_str": "{comp00}:I(L0,L1)T2(L1,L0,32,64)"
            },
            {
                "comp00": {
                    "tiling": {
                        "tiling_depth": 2,
                        "tiling_dims": [
                            "i1",
                            "i0"
                        ],
                        "tiling_factors": [
                            32,
                            128
                        ]
                    },
                    "unrolling_factor": null,
                    "parallelized_dim": null,
                    "shiftings": null,
                    "transformations_list": [
                        [
                            1,
                            0,
                            1,
                            0,
                            0,
                            0,
                            0,
                            0,
                            0,
                            0,
                            0,
                            0,
                            0,
                            0,
                            0,
                            0
                        ]
                    ]
                },
                "unfuse_iterators": [],
                "tree_structure": {
                    "roots": [
                        {
                            "loop_name": "i0",
                            "computations_list": [],
                            "child_list": [
                                {
                                    "loop_name": "i1",
                                    "computations_list": [
                                        "comp00"
                                    ],
                                    "child_list": []
                                }
                            ]
                        }
                    ]
                },
                "execution_times": [
                    0.030272,
                    0.0223,
                    0.02205,
                    0.022091,
                    0.022006,
                    0.02201,
                    0.022004,
                    0.021973,
                    0.022006,
                    0.021959,
                    0.022014,
                    0.022009,
                    0.021959,
                    0.022041,
                    0.022001,
                    0.022016,
                    0.02194,
                    0.021966,
                    0.021949,
                    0.021994,
                    0.022003,
                    0.021938,
                    0.021952,
                    0.021947,
                    0.021945,
                    0.021952,
                    0.022003,
                    0.021944,
                    0.021941,
                    0.022011
                ],
                "legality_check": true,
                "exploration_method": 1,
                "sched_str": "{comp00}:I(L0,L1)T2(L1,L0,32,128)"
            },
            {
                "comp00": {
                    "tiling": {
                        "tiling_depth": 2,
                        "tiling_dims": [
                            "i1",
                            "i0"
                        ],
                        "tiling_factors": [
                            32,
                            128
                        ]
                    },
                    "unrolling_factor": 4,
                    "parallelized_dim": null,
                    "shiftings": null,
                    "transformations_list": [
                        [
                            1,
                            0,
                            1,
                            0,
                            0,
                            0,
                            0,
                            0,
                            0,
                            0,
                            0,
                            0,
                            0,
                            0,
                            0,
                            0
                        ]
                    ]
                },
                "unfuse_iterators": [],
                "tree_structure": {
                    "roots": [
                        {
                            "loop_name": "i0",
                            "computations_list": [],
                            "child_list": [
                                {
                                    "loop_name": "i1",
                                    "computations_list": [
                                        "comp00"
                                    ],
                                    "child_list": []
                                }
                            ]
                        }
                    ]
                },
                "execution_times": [
                    0.075694,
                    0.06862,
                    0.067311,
                    0.067356,
                    0.06708,
                    0.067042,
                    0.067034,
                    0.067015,
                    0.067,
                    0.067005,
                    0.067017,
                    0.066984,
                    0.066978,
                    0.066999,
                    0.066956,
                    0.066982,
                    0.066929,
                    0.066986,
                    0.067017,
                    0.067024,
                    0.067031,
                    0.066999,
                    0.066977,
                    0.067032,
                    0.066966,
                    0.067044,
                    0.067012,
                    0.067012,
                    0.067023,
                    0.067038
                ],
                "legality_check": true,
                "exploration_method": 1,
                "sched_str": "{comp00}:I(L0,L1)T2(L1,L0,32,128)U(L3,4)"
            },
            {
                "comp00": {
                    "tiling": {
                        "tiling_depth": 2,
                        "tiling_dims": [
                            "i1",
                            "i0"
                        ],
                        "tiling_factors": [
                            32,
                            128
                        ]
                    },
                    "unrolling_factor": 8,
                    "parallelized_dim": null,
                    "shiftings": null,
                    "transformations_list": [
                        [
                            1,
                            0,
                            1,
                            0,
                            0,
                            0,
                            0,
                            0,
                            0,
                            0,
                            0,
                            0,
                            0,
                            0,
                            0,
                            0
                        ]
                    ]
                },
                "unfuse_iterators": [],
                "tree_structure": {
                    "roots": [
                        {
                            "loop_name": "i0",
                            "computations_list": [],
                            "child_list": [
                                {
                                    "loop_name": "i1",
                                    "computations_list": [
                                        "comp00"
                                    ],
                                    "child_list": []
                                }
                            ]
                        }
                    ]
                },
                "execution_times": [
                    0.076599,
                    0.068089,
                    0.06786,
                    0.067955,
                    0.067804,
                    0.067749,
                    0.067756,
                    0.067737,
                    0.067734,
                    0.067756,
                    0.067721,
                    0.067755,
                    0.067746,
                    0.069117,
                    0.067829,
                    0.067742,
                    0.067734,
                    0.067737,
                    0.067737,
                    0.067731,
                    0.067739,
                    0.067742,
                    0.067743,
                    0.067729,
                    0.067733,
                    0.067733,
                    0.067725,
                    0.067739,
                    0.067732,
                    0.067731
                ],
                "legality_check": true,
                "exploration_method": 1,
                "sched_str": "{comp00}:I(L0,L1)T2(L1,L0,32,128)U(L3,8)"
            },
            {
                "comp00": {
                    "tiling": {
                        "tiling_depth": 2,
                        "tiling_dims": [
                            "i1",
                            "i0"
                        ],
                        "tiling_factors": [
                            32,
                            128
                        ]
                    },
                    "unrolling_factor": 16,
                    "parallelized_dim": null,
                    "shiftings": null,
                    "transformations_list": [
                        [
                            1,
                            0,
                            1,
                            0,
                            0,
                            0,
                            0,
                            0,
                            0,
                            0,
                            0,
                            0,
                            0,
                            0,
                            0,
                            0
                        ]
                    ]
                },
                "unfuse_iterators": [],
                "tree_structure": {
                    "roots": [
                        {
                            "loop_name": "i0",
                            "computations_list": [],
                            "child_list": [
                                {
                                    "loop_name": "i1",
                                    "computations_list": [
                                        "comp00"
                                    ],
                                    "child_list": []
                                }
                            ]
                        }
                    ]
                },
                "execution_times": [
                    0.042506,
                    0.027241,
                    0.027101,
                    0.027214,
                    0.027044,
                    0.027371,
                    0.027074,
                    0.027092,
                    0.027376,
                    0.02712,
                    0.027125,
                    0.027556,
                    0.027106,
                    0.027756,
                    0.027057,
                    0.027365,
                    0.027113,
                    0.027106,
                    0.027061,
                    0.027082,
                    0.026941,
                    0.026913,
                    0.027473,
                    0.027328,
                    0.027044,
                    0.026921,
                    0.027418,
                    0.027325,
                    0.027056,
                    0.026955
                ],
                "legality_check": true,
                "exploration_method": 1,
                "sched_str": "{comp00}:I(L0,L1)T2(L1,L0,32,128)U(L3,16)"
            },
            {
                "comp00": {
                    "tiling": {},
                    "unrolling_factor": 4,
                    "parallelized_dim": null,
                    "shiftings": null,
                    "transformations_list": [
                        [
                            1,
                            0,
                            1,
                            0,
                            0,
                            0,
                            0,
                            0,
                            0,
                            0,
                            0,
                            0,
                            0,
                            0,
                            0,
                            0
                        ]
                    ]
                },
                "unfuse_iterators": [],
                "tree_structure": {
                    "roots": [
                        {
                            "loop_name": "i0",
                            "computations_list": [],
                            "child_list": [
                                {
                                    "loop_name": "i1",
                                    "computations_list": [
                                        "comp00"
                                    ],
                                    "child_list": []
                                }
                            ]
                        }
                    ]
                },
                "execution_times": [
                    0.06552,
                    0.06283,
                    0.062693,
                    0.062772,
                    0.062724,
                    0.062642,
                    0.062661,
                    0.062649,
                    0.062661,
                    0.062646,
                    0.06263,
                    0.073827,
                    0.062802,
                    0.06266,
                    0.062662,
                    0.062637,
                    0.062635,
                    0.062651,
                    0.062632,
                    0.062637,
                    0.06266,
                    0.062634,
                    0.062618,
                    0.062651,
                    0.062651,
                    0.062638,
                    0.062646,
                    0.062645,
                    0.062652,
                    0.062649
                ],
                "legality_check": true,
                "exploration_method": 1,
                "sched_str": "{comp00}:I(L0,L1)U(L1,4)"
            },
            {
                "comp00": {
                    "tiling": {},
                    "unrolling_factor": 8,
                    "parallelized_dim": null,
                    "shiftings": null,
                    "transformations_list": [
                        [
                            1,
                            0,
                            1,
                            0,
                            0,
                            0,
                            0,
                            0,
                            0,
                            0,
                            0,
                            0,
                            0,
                            0,
                            0,
                            0
                        ]
                    ]
                },
                "unfuse_iterators": [],
                "tree_structure": {
                    "roots": [
                        {
                            "loop_name": "i0",
                            "computations_list": [],
                            "child_list": [
                                {
                                    "loop_name": "i1",
                                    "computations_list": [
                                        "comp00"
                                    ],
                                    "child_list": []
                                }
                            ]
                        }
                    ]
                },
                "execution_times": [
                    0.06145,
                    0.057325,
                    0.057186,
                    0.057246,
                    0.057124,
                    0.057173,
                    0.057159,
                    0.057154,
                    0.057136,
                    0.057754,
                    0.05752,
                    0.057407,
                    0.057379,
                    0.057429,
                    0.057402,
                    0.057438,
                    0.057381,
                    0.057416,
                    0.057441,
                    0.057406,
                    0.05741,
                    0.057432,
                    0.057387,
                    0.057458,
                    0.057454,
                    0.057365,
                    0.057355,
                    0.057434,
                    0.057388,
                    0.057387
                ],
                "legality_check": true,
                "exploration_method": 1,
                "sched_str": "{comp00}:I(L0,L1)U(L1,8)"
            },
            {
                "comp00": {
                    "tiling": {},
                    "unrolling_factor": 16,
                    "parallelized_dim": null,
                    "shiftings": null,
                    "transformations_list": [
                        [
                            1,
                            0,
                            1,
                            0,
                            0,
                            0,
                            0,
                            0,
                            0,
                            0,
                            0,
                            0,
                            0,
                            0,
                            0,
                            0
                        ]
                    ]
                },
                "unfuse_iterators": [],
                "tree_structure": {
                    "roots": [
                        {
                            "loop_name": "i0",
                            "computations_list": [],
                            "child_list": [
                                {
                                    "loop_name": "i1",
                                    "computations_list": [
                                        "comp00"
                                    ],
                                    "child_list": []
                                }
                            ]
                        }
                    ]
                },
                "execution_times": [
                    0.041636,
                    0.037718,
                    0.037529,
                    0.037571,
                    0.037524,
                    0.037502,
                    0.037508,
                    0.037499,
                    0.037504,
                    0.037501,
                    0.037503,
                    0.037506,
                    0.037501,
                    0.037505,
                    0.037501,
                    0.037491,
                    0.03749,
                    0.037494,
                    0.037523,
                    0.037523,
                    0.037518,
                    0.037496,
                    0.037498,
                    0.037501,
                    0.037517,
                    0.037503,
                    0.037509,
                    0.037526,
                    0.037518,
                    0.037524
                ],
                "legality_check": true,
                "exploration_method": 1,
                "sched_str": "{comp00}:I(L0,L1)U(L1,16)"
            },
            {
                "comp00": {
                    "tiling": {
                        "tiling_depth": 2,
                        "tiling_dims": [
                            "i1",
                            "i0"
                        ],
                        "tiling_factors": [
                            32,
                            32
                        ]
                    },
                    "unrolling_factor": null,
                    "parallelized_dim": "i0",
                    "shiftings": null,
                    "transformations_list": [
                        [
                            1,
                            0,
                            1,
                            0,
                            0,
                            0,
                            0,
                            0,
                            0,
                            0,
                            0,
                            0,
                            0,
                            0,
                            0,
                            0
                        ]
                    ]
                },
                "unfuse_iterators": [],
                "tree_structure": {
                    "roots": [
                        {
                            "loop_name": "i0",
                            "computations_list": [],
                            "child_list": [
                                {
                                    "loop_name": "i1",
                                    "computations_list": [
                                        "comp00"
                                    ],
                                    "child_list": []
                                }
                            ]
                        }
                    ]
                },
                "execution_times": [
                    1.57194,
                    0.420835,
                    0.505929,
                    0.527935,
                    0.507772,
                    0.507968,
                    0.594841,
                    0.530792,
                    0.585585,
                    0.563445,
                    0.558552,
                    0.545078,
                    0.554181,
                    0.543229,
                    0.606674,
                    0.563333,
                    0.544965,
                    0.518824,
                    0.477472,
                    0.370059,
                    0.350603,
                    0.338521,
                    0.389649,
                    0.347997,
                    0.478844,
                    0.502946,
                    0.379542,
                    0.372649,
                    0.38264,
                    0.369002
                ],
                "legality_check": true,
                "exploration_method": 1,
                "sched_str": "{comp00}:I(L0,L1)P(L0)T2(L1,L0,32,32)"
            },
            {
                "comp00": {
                    "tiling": {
                        "tiling_depth": 2,
                        "tiling_dims": [
                            "i1",
                            "i0"
                        ],
                        "tiling_factors": [
                            32,
                            64
                        ]
                    },
                    "unrolling_factor": null,
                    "parallelized_dim": "i0",
                    "shiftings": null,
                    "transformations_list": [
                        [
                            1,
                            0,
                            1,
                            0,
                            0,
                            0,
                            0,
                            0,
                            0,
                            0,
                            0,
                            0,
                            0,
                            0,
                            0,
                            0
                        ]
                    ]
                },
                "unfuse_iterators": [],
                "tree_structure": {
                    "roots": [
                        {
                            "loop_name": "i0",
                            "computations_list": [],
                            "child_list": [
                                {
                                    "loop_name": "i1",
                                    "computations_list": [
                                        "comp00"
                                    ],
                                    "child_list": []
                                }
                            ]
                        }
                    ]
                },
                "execution_times": [
                    2.02571,
                    0.30869,
                    0.256194,
                    0.253288,
                    0.249228,
                    0.25691,
                    0.248873,
                    0.246984,
                    0.248599,
                    0.253615,
                    0.244376,
                    0.263155,
                    0.244334,
                    0.246396,
                    0.24251,
                    0.271736,
                    0.250666,
                    0.325217,
                    0.328029,
                    0.311441,
                    0.313212,
                    0.3004,
                    0.295565,
                    0.300877,
                    0.312969,
                    0.296186,
                    0.247,
                    0.258629,
                    0.239315,
                    0.261753
                ],
                "legality_check": true,
                "exploration_method": 1,
                "sched_str": "{comp00}:I(L0,L1)P(L0)T2(L1,L0,32,64)"
            },
            {
                "comp00": {
                    "tiling": {
                        "tiling_depth": 2,
                        "tiling_dims": [
                            "i1",
                            "i0"
                        ],
                        "tiling_factors": [
                            32,
                            128
                        ]
                    },
                    "unrolling_factor": null,
                    "parallelized_dim": "i0",
                    "shiftings": null,
                    "transformations_list": [
                        [
                            1,
                            0,
                            1,
                            0,
                            0,
                            0,
                            0,
                            0,
                            0,
                            0,
                            0,
                            0,
                            0,
                            0,
                            0,
                            0
                        ]
                    ]
                },
                "unfuse_iterators": [],
                "tree_structure": {
                    "roots": [
                        {
                            "loop_name": "i0",
                            "computations_list": [],
                            "child_list": [
                                {
                                    "loop_name": "i1",
                                    "computations_list": [
                                        "comp00"
                                    ],
                                    "child_list": []
                                }
                            ]
                        }
                    ]
                },
                "execution_times": [
                    1.85933,
                    0.132635,
                    0.13191,
                    0.128057,
                    0.128143,
                    0.126776,
                    0.12752,
                    0.130103,
                    0.138046,
                    0.130817,
                    0.131648,
                    0.113002,
                    0.119033,
                    0.139438,
                    0.136949,
                    0.130736,
                    0.124533,
                    0.14195,
                    0.11968,
                    0.144354,
                    0.142441,
                    0.115828,
                    0.117831,
                    0.121791,
                    0.130701,
                    0.124386,
                    0.129578,
                    0.125693,
                    0.136429,
                    0.128147
                ],
                "legality_check": true,
                "exploration_method": 1,
                "sched_str": "{comp00}:I(L0,L1)P(L0)T2(L1,L0,32,128)"
            },
            {
                "comp00": {
                    "tiling": {
                        "tiling_depth": 2,
                        "tiling_dims": [
                            "i1",
                            "i0"
                        ],
                        "tiling_factors": [
                            32,
                            128
                        ]
                    },
                    "unrolling_factor": 4,
                    "parallelized_dim": "i0",
                    "shiftings": null,
                    "transformations_list": [
                        [
                            1,
                            0,
                            1,
                            0,
                            0,
                            0,
                            0,
                            0,
                            0,
                            0,
                            0,
                            0,
                            0,
                            0,
                            0,
                            0
                        ]
                    ]
                },
                "unfuse_iterators": [],
                "tree_structure": {
                    "roots": [
                        {
                            "loop_name": "i0",
                            "computations_list": [],
                            "child_list": [
                                {
                                    "loop_name": "i1",
                                    "computations_list": [
                                        "comp00"
                                    ],
                                    "child_list": []
                                }
                            ]
                        }
                    ]
                },
                "execution_times": [
                    1.46623,
                    0.157593,
                    0.153145,
                    0.153656,
                    0.145031,
                    0.148332,
                    0.142488,
                    0.137646,
                    0.136701,
                    0.127434,
                    0.13934,
                    0.133109,
                    0.133299,
                    0.130219,
                    0.141948,
                    0.134937,
                    0.140388,
                    0.141189,
                    0.134152,
                    0.130167,
                    0.129151,
                    0.118352,
                    0.137744,
                    0.139356,
                    0.135617,
                    0.142559,
                    0.148019,
                    0.163242,
                    0.155844,
                    0.143025
                ],
                "legality_check": true,
                "exploration_method": 1,
                "sched_str": "{comp00}:I(L0,L1)P(L0)T2(L1,L0,32,128)U(L3,4)"
            },
            {
                "comp00": {
                    "tiling": {
                        "tiling_depth": 2,
                        "tiling_dims": [
                            "i1",
                            "i0"
                        ],
                        "tiling_factors": [
                            32,
                            128
                        ]
                    },
                    "unrolling_factor": 8,
                    "parallelized_dim": "i0",
                    "shiftings": null,
                    "transformations_list": [
                        [
                            1,
                            0,
                            1,
