{
    "function707668": {
        "filename": "./function707668_explored_schedules.json",
        "node_name": "lanka17",
        "parameters": {
            "beam_size": 2,
            "max_depth": 6
        },
        "program_annotation": {
            "memory_size": 0.0009918212890625,
            "iterators": {
                "i0": {
                    "lower_bound": 1,
                    "upper_bound": 129,
                    "parent_iterator": null,
                    "child_iterators": [
                        "i1"
                    ],
                    "computations_list": []
                },
                "i1": {
                    "lower_bound": 0,
                    "upper_bound": 16,
                    "parent_iterator": "i0",
                    "child_iterators": [],
                    "computations_list": [
                        "comp00"
                    ]
                }
            },
            "computations": {
                "comp00": {
                    "absolute_order": 1,
                    "iterators": [
                        "i0",
                        "i1"
                    ],
                    "comp_is_reduction": true,
                    "number_of_additions": 0,
                    "number_of_subtraction": 1,
                    "number_of_multiplication": 1,
                    "number_of_division": 0,
                    "write_access_relation": "{ comp00[i0, i1] -> buf00[i0] }",
                    "write_buffer_id": 0,
                    "data_type": "float64",
                    "data_type_size": 0,
                    "accesses": [
                        {
                            "access_is_reduction": true,
                            "buffer_id": 0,
                            "access_matrix": [
                                [
                                    1,
                                    0,
                                    0
                                ]
                            ]
                        },
                        {
                            "access_is_reduction": true,
                            "buffer_id": 0,
                            "access_matrix": [
                                [
                                    1,
                                    0,
                                    -1
                                ]
                            ]
                        },
                        {
                            "access_is_reduction": true,
                            "buffer_id": 0,
                            "access_matrix": [
                                [
                                    1,
                                    0,
                                    1
                                ]
                            ]
                        }
                    ],
                    "expression_representation": {
                        "expr_type": "mul",
                        "children": [
                            {
                                "expr_type": "sub",
                                "children": [
                                    {
                                        "expr_type": "access",
                                        "children": []
                                    },
                                    {
                                        "expr_type": "access",
                                        "children": []
                                    }
                                ]
                            },
                            {
                                "expr_type": "access",
                                "children": []
                            }
                        ]
                    }
                }
            }
        },
        "initial_execution_time": 0.00535,
        "schedules_list": [
            {
                "comp00": {
                    "tiling": {},
                    "unrolling_factor": null,
                    "parallelized_dim": null,
                    "shiftings": null,
                    "transformations_list": []
                },
                "unfuse_iterators": [],
                "tree_structure": {
                    "roots": [
                        {
                            "loop_name": "i0",
                            "computations_list": [],
                            "child_list": [
                                {
                                    "loop_name": "i1",
                                    "computations_list": [
                                        "comp00"
                                    ],
                                    "child_list": []
                                }
                            ]
                        }
                    ]
                },
                "execution_times": [
                    0.005954,
                    0.005426,
                    0.005357,
                    0.005383,
                    0.00535,
                    0.005352,
                    0.019016,
                    0.005553,
                    0.005531,
                    0.00553,
                    0.005529,
                    0.005531,
                    0.005531,
                    0.005531,
                    0.005533,
                    0.005534,
                    0.005542,
                    0.005532,
                    0.005534,
                    0.005533,
                    0.005531,
                    0.005531,
                    0.005531,
                    0.00553,
                    0.005531,
                    0.00553,
                    0.005534,
                    0.005534,
                    0.005533,
                    0.005533
                ],
                "legality_check": true,
                "exploration_method": 1,
                "sched_str": "{comp00}:"
            },
            {
                "comp00": {
                    "tiling": {},
                    "unrolling_factor": 4,
                    "parallelized_dim": null,
                    "shiftings": null,
                    "transformations_list": []
                },
                "unfuse_iterators": [],
                "tree_structure": {
                    "roots": [
                        {
                            "loop_name": "i0",
                            "computations_list": [],
                            "child_list": [
                                {
                                    "loop_name": "i1",
                                    "computations_list": [
                                        "comp00"
                                    ],
                                    "child_list": []
                                }
                            ]
                        }
                    ]
                },
                "execution_times": [
                    0.007388,
                    0.006951,
                    0.006914,
                    0.006945,
                    0.006898,
                    0.006915,
                    0.006904,
                    0.006903,
                    0.006903,
                    0.006903,
                    0.006903,
                    0.006903,
                    0.006904,
                    0.006903,
                    0.006903,
                    0.006904,
                    0.006903,
                    0.006903,
                    0.006903,
                    0.006903,
                    0.006903,
                    0.006903,
                    0.006903,
                    0.006904,
                    0.006903,
                    0.006904,
                    0.006904,
                    0.006903,
                    0.006904,
                    0.006903
                ],
                "legality_check": true,
                "exploration_method": 1,
                "sched_str": "{comp00}:U(L1,4)"
            },
            {
                "comp00": {
                    "tiling": {},
                    "unrolling_factor": 8,
                    "parallelized_dim": null,
                    "shiftings": null,
                    "transformations_list": []
                },
                "unfuse_iterators": [],
                "tree_structure": {
                    "roots": [
                        {
                            "loop_name": "i0",
                            "computations_list": [],
                            "child_list": [
                                {
                                    "loop_name": "i1",
                                    "computations_list": [
                                        "comp00"
                                    ],
                                    "child_list": []
                                }
                            ]
                        }
                    ]
                },
                "execution_times": [
                    0.010379,
                    0.009879,
                    0.009812,
                    0.009812,
                    0.009783,
                    0.009772,
                    0.025627,
                    0.006958,
                    0.00695,
                    0.006937,
                    0.00693,
                    0.006935,
                    0.006935,
                    0.006935,
                    0.006935,
                    0.006934,
                    0.00695,
                    0.006935,
                    0.00695,
                    0.006951,
                    0.00693,
                    0.006938,
                    0.006928,
                    0.026375,
                    0.009814,
                    0.009785,
                    0.009785,
                    0.009785,
                    0.009783,
                    0.009786
                ],
                "legality_check": true,
                "exploration_method": 1,
                "sched_str": "{comp00}:U(L1,8)"
            }
        ],
        "exploration_trace": {
            "id": 0,
            "schedule": "",
            "depth": 1,
            "evaluation": 0.00535,
            "children": [
                {
                    "id": 0,
                    "schedule": "",
                    "depth": 1,
                    "evaluation": 0.00535,
                    "children": [
                        {
                            "id": 1,
                            "schedule": "U(L1,4)",
                            "depth": 2,
                            "evaluation": 0.006898,
                            "children": []
                        },
                        {
                            "id": 2,
                            "schedule": "U(L1,8)",
                            "depth": 2,
                            "evaluation": 0.006928,
                            "children": []
                        }
                    ]
                }
            ]
        }
    }
}